<?xml version="1.0" encoding="ISO-8859-1"?>
<!-- This network was created in GeNIe Academic, which can be used for educational and research purposes only -->
<smile version="1.0" id="Network1" numsamples="10000" discsamples="10000">
	<nodes>
		<cpt id="Age">
			<state id="Y16_20" />
			<state id="Y21_30" />
			<state id="Y31_40" />
			<state id="Y41_50" />
			<state id="Y51_60" />
			<state id="Y60_90" />
			<probabilities>0.1 0.2 0.2 0.2 0.2 0.1</probabilities>
		</cpt>
		<cpt id="Medication">
			<state id="Present" />
			<state id="Absent" />
			<probabilities>0.5 0.5</probabilities>
		</cpt>
		<cpt id="AKI" target="true">
			<state id="Present" />
			<state id="Absent" />
			<probabilities>0.6 0.4</probabilities>
		</cpt>
		<cpt id="Gender">
			<state id="M" />
			<state id="F" />
			<probabilities>0.5 0.5</probabilities>
		</cpt>
		<cpt id="Injury" dynamic="plate">
			<state id="None" />
			<state id="Mild" />
			<state id="Severe" />
			<parents>Medication AKI</parents>
			<probabilities>0.34 0.34 0.32 0.33 0.33 0.34 0.5 0.5 0 0.5 0.5 0</probabilities>
		</cpt>
		<cpt id="Scr_level" dynamic="plate">
			<state id="LT10" />
			<state id="V10_20" />
			<state id="V21_30" />
			<state id="V31_40" />
			<state id="V41_50" />
			<state id="V51_60" />
			<state id="V61_70" />
			<state id="V71_80" />
			<state id="V81_90" />
			<state id="V91_100" />
			<state id="V101_110" />
			<state id="V111_120" />
			<state id="V121_130" />
			<state id="V131_140" />
			<state id="V141_150" />
			<state id="V151_160" />
			<state id="V161_170" />
			<state id="V171_180" />
			<state id="MT180" />
			<parents>Gender Age Injury</parents>
			<probabilities>0.05263157894736844 0.05263157894736844 0.05263157894736844 0.05263157894736844 0.05263157894736844 0.05263157894736844 0.05263157894736844 0.05263157894736844 0.05263157894736844 0.05263157894736844 0.05263157894736844 0.05263157894736844 0.05263157894736844 0.05263157894736844 0.05263157894736844 0.05263157894736844 0.05263157894736844 0.05263157894736844 0.05263157894736844 0.05263157894736844 0.05263157894736844 0.05263157894736844 0.05263157894736844 0.05263157894736844 0.05263157894736844 0.05263157894736844 0.05263157894736844 0.05263157894736844 0.05263157894736844 0.05263157894736844 0.05263157894736844 0.05263157894736844 0.05263157894736844 0.05263157894736844 0.05263157894736844 0.05263157894736844 0.05263157894736844 0.05263157894736844 0.05263157894736844 0.05263157894736844 0.05263157894736844 0.05263157894736844 0.05263157894736844 0.05263157894736844 0.05263157894736844 0.05263157894736844 0.05263157894736844 0.05263157894736844 0.05263157894736844 0.05263157894736844 0.05263157894736844 0.05263157894736844 0.05263157894736844 0.05263157894736844 0.05263157894736844 0.05263157894736844 0.05263157894736844 0.05263157894736844 0.05263157894736844 0.05263157894736844 0.05263157894736844 0.05263157894736844 0.05263157894736844 0.05263157894736844 0.05263157894736844 0.05263157894736844 0.05263157894736844 0.05263157894736844 0.05263157894736844 0.05263157894736844 0.05263157894736844 0.05263157894736844 0.05263157894736844 0.05263157894736844 0.05263157894736844 0.05263157894736844 0.05263157894736844 0.05263157894736844 0.05263157894736844 0.05263157894736844 0.05263157894736844 0.05263157894736844 0.05263157894736844 0.05263157894736844 0.05263157894736844 0.05263157894736844 0.05263157894736844 0.05263157894736844 0.05263157894736844 0.05263157894736844 0.05263157894736844 0.05263157894736844 0.05263157894736844 0.05263157894736844 0.05263157894736844 0.05263157894736844 0.05263157894736844 0.05263157894736844 0.05263157894736844 0.05263157894736844 0.05263157894736844 0.05263157894736844 0.05263157894736844 0.05263157894736844 0.05263157894736844 0.05263157894736844 0.05263157894736844 0.05263157894736844 0.05263157894736844 0.05263157894736844 0.05263157894736844 0.05263157894736844 0.05263157894736844 0.05263157894736844 0.05263157894736844 0.05263157894736844 0.05263157894736844 0.05263157894736844 0.05263157894736844 0.05263157894736844 0.05263157894736844 0.05263157894736844 0.05263157894736844 0.05263157894736844 0.05263157894736844 0.05263157894736844 0.05263157894736844 0.05263157894736844 0.05263157894736844 0.05263157894736844 0.05263157894736844 0.05263157894736844 0.05263157894736844 0.05263157894736844 0.05263157894736844 0.05263157894736844 0.05263157894736844 0.05263157894736844 0.05263157894736844 0.05263157894736844 0.05263157894736844 0.05263157894736844 0.05263157894736844 0.05263157894736844 0.05263157894736844 0.05263157894736844 0.05263157894736844 0.05263157894736844 0.05263157894736844 0.05263157894736844 0.05263157894736844 0.05263157894736844 0.05263157894736844 0.05263157894736844 0.05263157894736844 0.05263157894736844 0.05263157894736844 0.05263157894736844 0.05263157894736844 0.05263157894736844 0.05263157894736844 0.05263157894736844 0.05263157894736844 0.05263157894736844 0.05263157894736844 0.05263157894736844 0.05263157894736844 0.05263157894736844 0.05263157894736844 0.05263157894736844 0.05263157894736844 0.05263157894736844 0.05263157894736844 0.05263157894736844 0.05263157894736844 0.05263157894736844 0.05263157894736844 0.05263157894736844 0.05263157894736844 0.05263157894736844 0.05263157894736844 0.05263157894736844 0.05263157894736844 0.05263157894736844 0.05263157894736844 0.05263157894736844 0.05263157894736844 0.05263157894736844 0.05263157894736844 0.05263157894736844 0.05263157894736844 0.05263157894736844 0.05263157894736844 0.05263157894736844 0.05263157894736844 0.05263157894736844 0.05263157894736844 0.05263157894736844 0.05263157894736844 0.05263157894736844 0.05263157894736844 0.05263157894736844 0.05263157894736844 0.05263157894736844 0.05263157894736844 0.05263157894736844 0.05263157894736844 0.05263157894736844 0.05263157894736844 0.05263157894736844 0.05263157894736844 0.05263157894736844 0.05263157894736844 0.05263157894736844 0.05263157894736844 0.05263157894736844 0.05263157894736844 0.05263157894736844 0.05263157894736844 0.05263157894736844 0.05263157894736844 0.05263157894736844 0.05263157894736844 0.05263157894736844 0.05263157894736844 0.05263157894736844 0.05263157894736844 0.05263157894736844 0.05263157894736844 0.05263157894736844 0.05263157894736844 0.05263157894736844 0.05263157894736844 0.05263157894736844 0.05263157894736844 0.05263157894736844 0.05263157894736844 0.05263157894736844 0.05263157894736844 0.05263157894736844 0.05263157894736844 0.05263157894736844 0.05263157894736844 0.05263157894736844 0.05263157894736844 0.05263157894736844 0.05263157894736844 0.05263157894736844 0.05263157894736844 0.05263157894736844 0.05263157894736844 0.05263157894736844 0.05263157894736844 0.05263157894736844 0.05263157894736844 0.05263157894736844 0.05263157894736844 0.05263157894736844 0.05263157894736844 0.05263157894736844 0.05263157894736844 0.05263157894736844 0.05263157894736844 0.05263157894736844 0.05263157894736844 0.05263157894736844 0.05263157894736844 0.05263157894736844 0.05263157894736844 0.05263157894736844 0.05263157894736844 0.05263157894736844 0.05263157894736844 0.05263157894736844 0.05263157894736844 0.05263157894736844 0.05263157894736844 0.05263157894736844 0.05263157894736844 0.05263157894736844 0.05263157894736844 0.05263157894736844 0.05263157894736844 0.05263157894736844 0.05263157894736844 0.05263157894736844 0.05263157894736844 0.05263157894736844 0.05263157894736844 0.05263157894736844 0.05263157894736844 0.05263157894736844 0.05263157894736844 0.05263157894736844 0.05263157894736844 0.05263157894736844 0.05263157894736844 0.05263157894736844 0.05263157894736844 0.05263157894736844 0.05263157894736844 0.05263157894736844 0.05263157894736844 0.05263157894736844 0.05263157894736844 0.05263157894736844 0.05263157894736844 0.05263157894736844 0.05263157894736844 0.05263157894736844 0.05263157894736844 0.05263157894736844 0.05263157894736844 0.05263157894736844 0.05263157894736844 0.05263157894736844 0.05263157894736844 0.05263157894736844 0.05263157894736844 0.05263157894736844 0.05263157894736844 0.05263157894736844 0.05263157894736844 0.05263157894736844 0.05263157894736844 0.05263157894736844 0.05263157894736844 0.05263157894736844 0.05263157894736844 0.05263157894736844 0.05263157894736844 0.05263157894736844 0.05263157894736844 0.05263157894736844 0.05263157894736844 0.05263157894736844 0.05263157894736844 0.05263157894736844 0.05263157894736844 0.05263157894736844 0.05263157894736844 0.05263157894736844 0.05263157894736844 0.05263157894736844 0.05263157894736844 0.05263157894736844 0.05263157894736844 0.05263157894736844 0.05263157894736844 0.05263157894736844 0.05263157894736844 0.05263157894736844 0.05263157894736844 0.05263157894736844 0.05263157894736844 0.05263157894736844 0.05263157894736844 0.05263157894736844 0.05263157894736844 0.05263157894736844 0.05263157894736844 0.05263157894736844 0.05263157894736844 0.05263157894736844 0.05263157894736844 0.05263157894736844 0.05263157894736844 0.05263157894736844 0.05263157894736844 0.05263157894736844 0.05263157894736844 0.05263157894736844 0.05263157894736844 0.05263157894736844 0.05263157894736844 0.05263157894736844 0.05263157894736844 0.05263157894736844 0.05263157894736844 0.05263157894736844 0.05263157894736844 0.05263157894736844 0.05263157894736844 0.05263157894736844 0.05263157894736844 0.05263157894736844 0.05263157894736844 0.05263157894736844 0.05263157894736844 0.05263157894736844 0.05263157894736844 0.05263157894736844 0.05263157894736844 0.05263157894736844 0.05263157894736844 0.05263157894736844 0.05263157894736844 0.05263157894736844 0.05263157894736844 0.05263157894736844 0.05263157894736844 0.05263157894736844 0.05263157894736844 0.05263157894736844 0.05263157894736844 0.05263157894736844 0.05263157894736844 0.05263157894736844 0.05263157894736844 0.05263157894736844 0.05263157894736844 0.05263157894736844 0.05263157894736844 0.05263157894736844 0.05263157894736844 0.05263157894736844 0.05263157894736844 0.05263157894736844 0.05263157894736844 0.05263157894736844 0.05263157894736844 0.05263157894736844 0.05263157894736844 0.05263157894736844 0.05263157894736844 0.05263157894736844 0.05263157894736844 0.05263157894736844 0.05263157894736844 0.05263157894736844 0.05263157894736844 0.05263157894736844 0.05263157894736844 0.05263157894736844 0.05263157894736844 0.05263157894736844 0.05263157894736844 0.05263157894736844 0.05263157894736844 0.05263157894736844 0.05263157894736844 0.05263157894736844 0.05263157894736844 0.05263157894736844 0.05263157894736844 0.05263157894736844 0.05263157894736844 0.05263157894736844 0.05263157894736844 0.05263157894736844 0.05263157894736844 0.05263157894736844 0.05263157894736844 0.05263157894736844 0.05263157894736844 0.05263157894736844 0.05263157894736844 0.05263157894736844 0.05263157894736844 0.05263157894736844 0.05263157894736844 0.05263157894736844 0.05263157894736844 0.05263157894736844 0.05263157894736844 0.05263157894736844 0.05263157894736844 0.05263157894736844 0.05263157894736844 0.05263157894736844 0.05263157894736844 0.05263157894736844 0.05263157894736844 0.05263157894736844 0.05263157894736844 0.05263157894736844 0.05263157894736844 0.05263157894736844 0.05263157894736844 0.05263157894736844 0.05263157894736844 0.05263157894736844 0.05263157894736844 0.05263157894736844 0.05263157894736844 0.05263157894736844 0.05263157894736844 0.05263157894736844 0.05263157894736844 0.05263157894736844 0.05263157894736844 0.05263157894736844 0.05263157894736844 0.05263157894736844 0.05263157894736844 0.05263157894736844 0.05263157894736844 0.05263157894736844 0.05263157894736844 0.05263157894736844 0.05263157894736844 0.05263157894736844 0.05263157894736844 0.05263157894736844 0.05263157894736844 0.05263157894736844 0.05263157894736844 0.05263157894736844 0.05263157894736844 0.05263157894736844 0.05263157894736844 0.05263157894736844 0.05263157894736844 0.05263157894736844 0.05263157894736844 0.05263157894736844 0.05263157894736844 0.05263157894736844 0.05263157894736844 0.05263157894736844 0.05263157894736844 0.05263157894736844 0.05263157894736844 0.05263157894736844 0.05263157894736844 0.05263157894736844 0.05263157894736844 0.05263157894736844 0.05263157894736844 0.05263157894736844 0.05263157894736844 0.05263157894736844 0.05263157894736844 0.05263157894736844 0.05263157894736844 0.05263157894736844 0.05263157894736844 0.05263157894736844 0.05263157894736844 0.05263157894736844 0.05263157894736844 0.05263157894736844 0.05263157894736844 0.05263157894736844 0.05263157894736844 0.05263157894736844 0.05263157894736844 0.05263157894736844 0.05263157894736844 0.05263157894736844 0.05263157894736844 0.05263157894736844 0.05263157894736844 0.05263157894736844 0.05263157894736844 0.05263157894736844 0.05263157894736844 0.05263157894736844 0.05263157894736844 0.05263157894736844 0.05263157894736844 0.05263157894736844 0.05263157894736844 0.05263157894736844 0.05263157894736844 0.05263157894736844 0.05263157894736844 0.05263157894736844 0.05263157894736844 0.05263157894736844 0.05263157894736844 0.05263157894736844 0.05263157894736844 0.05263157894736844 0.05263157894736844 0.05263157894736844 0.05263157894736844 0.05263157894736844 0.05263157894736844 0.05263157894736844 0.05263157894736844 0.05263157894736844 0.05263157894736844 0.05263157894736844 0.05263157894736844 0.05263157894736844 0.05263157894736844 0.05263157894736844 0.05263157894736844 0.05263157894736844 0.05263157894736844 0.05263157894736844 0.05263157894736844 0.05263157894736844 0.05263157894736844 0.05263157894736844 0.05263157894736844 0.05263157894736844 0.05263157894736844 0.05263157894736844 0.05263157894736844 0.05263157894736844 0.05263157894736844 0.05263157894736844 0.05263157894736844 0.05263157894736844 0.05263157894736844 0.05263157894736844 0.05263157894736844 0.05263157894736844 0.05263157894736844 0.05263157894736844 0.05263157894736844 0.05263157894736844 0.05263157894736844 0.05263157894736844 0.05263157894736844 0.05263157894736844 0.05263157894736844 0.05263157894736844 0.05263157894736844 0.05263157894736844 0.05263157894736844 0.05263157894736844 0.05263157894736844 0.05263157894736844 0.05263157894736844 0.05263157894736844 0.05263157894736844 0.05263157894736844 0.05263157894736844 0.05263157894736844 0.05263157894736844 0.05263157894736844 0.05263157894736844 0.05263157894736844 0.05263157894736844 0.05263157894736844 0.05263157894736844 0.05263157894736844 0.05263157894736844 0.05263157894736844 0.05263157894736844 0.05263157894736844 0.05263157894736844 0.05263157894736844 0.05263157894736844 0.05263157894736844 0.05263157894736844 0.05263157894736844 0.05263157894736844 0.05263157894736844 0.05263157894736844 0.05263157894736844 0.05263157894736844 0.05263157894736844 0.05263157894736844 0.05263157894736844 0.05263157894736844 0.05263157894736844 0.05263157894736844 0.05263157894736844 0.05263157894736844 0.05263157894736844 0.05263157894736844 0.05263157894736844 0.05263157894736844 0.05263157894736844 0.05263157894736844 0.05263157894736844 0.05263157894736844 0.05263157894736844 0.05263157894736844 0.05263157894736844 0.05263157894736844 0.05263157894736844 0.05263157894736844 0.05263157894736844 0.05263157894736844 0.05263157894736844 0.05263157894736844 0.05263157894736844 0.05263157894736844 0.05263157894736844</probabilities>
		</cpt>
	</nodes>
	<dynamic numslices="4">
		<cpt id="Injury" order="1">
			<parents>Injury</parents>
			<probabilities>0.34 0.34 0.32 0.34 0.34 0.32 0.34 0.34 0.32 0.33 0.33 0.34 0.33 0.33 0.34 0.33 0.33 0.34 0.5 0.5 0 0.5 0.5 0 0.5 0.5 0 0.5 0.5 0 0.5 0.5 0 0.5 0.5 0</probabilities>
		</cpt>
		<cpt id="Injury" order="2">
			<parents>Injury</parents>
			<probabilities>0.34 0.34 0.32 0.34 0.34 0.32 0.34 0.34 0.32 0.34 0.34 0.32 0.34 0.34 0.32 0.34 0.34 0.32 0.34 0.34 0.32 0.34 0.34 0.32 0.34 0.34 0.32 0.33 0.33 0.34 0.33 0.33 0.34 0.33 0.33 0.34 0.33 0.33 0.34 0.33 0.33 0.34 0.33 0.33 0.34 0.33 0.33 0.34 0.33 0.33 0.34 0.33 0.33 0.34 0.5 0.5 0 0.5 0.5 0 0.5 0.5 0 0.5 0.5 0 0.5 0.5 0 0.5 0.5 0 0.5 0.5 0 0.5 0.5 0 0.5 0.5 0 0.5 0.5 0 0.5 0.5 0 0.5 0.5 0 0.5 0.5 0 0.5 0.5 0 0.5 0.5 0 0.5 0.5 0 0.5 0.5 0 0.5 0.5 0</probabilities>
		</cpt>
		<cpt id="Injury" order="3">
			<parents>Injury</parents>
			<probabilities>0.34 0.34 0.32 0.34 0.34 0.32 0.34 0.34 0.32 0.34 0.34 0.32 0.34 0.34 0.32 0.34 0.34 0.32 0.34 0.34 0.32 0.34 0.34 0.32 0.34 0.34 0.32 0.34 0.34 0.32 0.34 0.34 0.32 0.34 0.34 0.32 0.34 0.34 0.32 0.34 0.34 0.32 0.34 0.34 0.32 0.34 0.34 0.32 0.34 0.34 0.32 0.34 0.34 0.32 0.34 0.34 0.32 0.34 0.34 0.32 0.34 0.34 0.32 0.34 0.34 0.32 0.34 0.34 0.32 0.34 0.34 0.32 0.34 0.34 0.32 0.34 0.34 0.32 0.34 0.34 0.32 0.33 0.33 0.34 0.33 0.33 0.34 0.33 0.33 0.34 0.33 0.33 0.34 0.33 0.33 0.34 0.33 0.33 0.34 0.33 0.33 0.34 0.33 0.33 0.34 0.33 0.33 0.34 0.33 0.33 0.34 0.33 0.33 0.34 0.33 0.33 0.34 0.33 0.33 0.34 0.33 0.33 0.34 0.33 0.33 0.34 0.33 0.33 0.34 0.33 0.33 0.34 0.33 0.33 0.34 0.33 0.33 0.34 0.33 0.33 0.34 0.33 0.33 0.34 0.33 0.33 0.34 0.33 0.33 0.34 0.33 0.33 0.34 0.33 0.33 0.34 0.33 0.33 0.34 0.33 0.33 0.34 0.5 0.5 0 0.5 0.5 0 0.5 0.5 0 0.5 0.5 0 0.5 0.5 0 0.5 0.5 0 0.5 0.5 0 0.5 0.5 0 0.5 0.5 0 0.5 0.5 0 0.5 0.5 0 0.5 0.5 0 0.5 0.5 0 0.5 0.5 0 0.5 0.5 0 0.5 0.5 0 0.5 0.5 0 0.5 0.5 0 0.5 0.5 0 0.5 0.5 0 0.5 0.5 0 0.5 0.5 0 0.5 0.5 0 0.5 0.5 0 0.5 0.5 0 0.5 0.5 0 0.5 0.5 0 0.5 0.5 0 0.5 0.5 0 0.5 0.5 0 0.5 0.5 0 0.5 0.5 0 0.5 0.5 0 0.5 0.5 0 0.5 0.5 0 0.5 0.5 0 0.5 0.5 0 0.5 0.5 0 0.5 0.5 0 0.5 0.5 0 0.5 0.5 0 0.5 0.5 0 0.5 0.5 0 0.5 0.5 0 0.5 0.5 0 0.5 0.5 0 0.5 0.5 0 0.5 0.5 0 0.5 0.5 0 0.5 0.5 0 0.5 0.5 0 0.5 0.5 0 0.5 0.5 0 0.5 0.5 0</probabilities>
		</cpt>
	</dynamic>
	<extensions>
		<genie version="1.0" app="GeNIe 2.4.4601.0 ACADEMIC" name="AKI_Prediction" faultnameformat="nodestate">
			<plate leftwidth="119" rightwidth="210">170 218 925 853</plate>
			<node id="AKI">
				<name>AKI in next 48 hours</name>
				<interior color="e5f6f7" />
				<outline color="000080" />
				<font color="000000" name="Arial" size="8" />
				<position>712 86 817 137</position>
				<barchart active="true" width="129" height="78" />
			</node>
			<node id="Scr_level">
				<name>Scr levels</name>
				<interior color="e5f6f7" />
				<outline color="000080" />
				<font color="000000" name="Arial" size="8" />
				<position>320 538 409 581</position>
				<barchart active="true" width="151" height="588" />
			</node>
			<node id="Gender">
				<name>Gender</name>
				<interior color="e5f6f7" />
				<outline color="000080" />
				<font color="000000" name="Arial" size="8" />
				<position>205 74 307 132</position>
				<barchart active="true" width="128" height="64" />
			</node>
			<node id="Age">
				<name>Age</name>
				<interior color="e5f6f7" />
				<outline color="000080" />
				<font color="000000" name="Arial" size="8" />
				<position>353 107 455 165</position>
				<barchart active="true" width="128" height="126" />
			</node>
			<textbox>
				<caption>Stage 1\n</caption>
				<font color="000000" name="Arial" size="16" />
				<position>275 29 348 53</position>
			</textbox>
			<node id="Medication">
				<name>Nephrotoxic medication</name>
				<interior color="e5f6f7" />
				<outline color="000080" />
				<font color="000000" name="Arial" size="8" />
				<position>519 79 639 134</position>
				<barchart active="true" width="217" height="64" />
			</node>
			<node id="Injury">
				<name>Kidney injury</name>
				<interior color="e5f6f7" />
				<outline color="000080" />
				<font color="000000" name="Arial" size="8" />
				<position>538 278 707 347</position>
			</node>
		</genie>
	</extensions>
</smile>
