<?xml version="1.0" encoding="ISO-8859-1"?>
<!-- This file was created by ACADEMIC version of SMILE -->
<smile version="1.0" id="Network1" numsamples="10000" discsamples="10000">
	<nodes>
		<cpt id="Age">
			<state id="Y16_19" />
			<state id="Y20_24" />
			<state id="Y25_29" />
			<state id="Y30_39" />
			<state id="Y40_54" />
			<state id="Y55_65" />
			<state id="Y66_200" />
			<probabilities>0.2451096059878376 0.1068949595952613 0.2684746929619675 0.1059139695440829 0.1331418163691883 0.140464955541649 1.333377952668439e-14</probabilities>
		</cpt>
		<cpt id="AKI48H" target="true">
			<state id="TRUE" />
			<state id="FALSE" />
			<probabilities>0.8007384407561998 0.1992615592438002</probabilities>
		</cpt>
		<cpt id="Gender">
			<state id="M" />
			<state id="F" />
			<probabilities>0.9604899785878105 0.03951002141218953</probabilities>
		</cpt>
		<cpt id="Scr_level" dynamic="plate">
			<state id="V0_10" />
			<state id="V10_20" />
			<state id="V20_30" />
			<state id="V30_40" />
			<state id="V40_50" />
			<state id="V50_60" />
			<state id="V60_70" />
			<state id="V70_80" />
			<state id="V80_90" />
			<state id="V90_100" />
			<state id="V100_110" />
			<state id="V110_120" />
			<state id="V120_130" />
			<state id="V130_140" />
			<state id="V140_150" />
			<state id="V150_160" />
			<state id="V160_170" />
			<state id="V170_180" />
			<state id="V180_600" />
			<parents>Gender Age AKI48H</parents>
			<probabilities>0.0004057069063152411 0.0004057069063152411 0.0004057069063152411 0.0004057069063827849 0.0004057069074853393 0.0004057098020864753 0.0004057566826751002 0.003470109653873209 0.3642768127474619 0.2759567713047417 0.2269336075336175 0.112198414817229 0.008012963403936162 0.004189567568224562 0.0004319918700330204 0.0004704895774516167 0.0004062736526777579 0.0004061423175732895 0.0004068545356049112 0.001162656449791291 0.001162656449791291 0.001162656449791291 0.001162656453446254 0.001256340184985014 0.0565072122600395 0.477993121004934 0.3711031698826813 0.04364462258712221 0.0337238264273896 0.001209703700207729 0.001688678265502474 0.001162779862243727 0.001163840954476381 0.001216563730673441 0.001191544872059254 0.001162656717320881 0.001162656760035323 0.001162656987508939 0.0008552204583360581 0.0008552204583360581 0.0008552204583360581 0.0009228917989278892 0.3330777478179955 0.3256603762856847 0.326932698143778 0.001073512202474222 0.001073434638120188 0.0009919648685674499 0.000855221118059598 0.0008592450273297592 0.0008552208182217028 0.0008552205910744191 0.0008558954252255491 0.0008552482155782744 0.0008552205235658105 0.0008552205638068272 0.0008552205865820964 0.002835952002883398 0.002835952002883398 0.002835952002883398 0.002835952129762026 0.003200160917493315 0.1371768318549025 0.3156829104835084 0.3375924277011261 0.005243053265066046 0.005732234525633682 0.002886201532117662 0.1082927903224193 0.002841064073580843 0.002836195032388815 0.002857175060400919 0.05580653355820363 0.002836162968085804 0.002836082581050819 0.00283636798561005 0.0003358514813217063 0.0003358514813217063 0.0003358514813217063 0.0003358514813458187 0.0003358514818214275 0.0003359095811971893 0.0003982449586600314 0.1722435062564602 0.1560944414928239 0.3126658912258222 0.3479709994728056 0.001364137664063926 0.00276861972820969 0.002788232307390517 0.0003399758756278588 0.0003431518609940052 0.0003358588950786477 0.0003359071447748397 0.000335866128958874 0.001343312593080714 0.001343312593080714 0.001343312593080714 0.001343312599528292 0.001343312719770052 0.001343707178375611 0.001497750396287176 0.03769264861877782 0.06353181157394151 0.001770540895572563 0.3394199254833086 0.1104837024006444 0.02506133802588496 0.07680141533850644 0.1036692514326259 0.2264313378734395 0.001357694466441203 0.001804518090285651 0.002417795127368273 0.0008785159228005716 0.0008785159228005716 0.0008785159228005716 0.0008785159239953949 0.0008785159435064063 0.0008785535165588538 0.000878904427246572 0.006746184783406999 0.4220331554950209 0.1625150594643091 0.2163363169107964 0.1792624489768479 0.001402891112648632 0.001045967245098545 0.0008928376439368725 0.0009685062710995013 0.0008822089685240093 0.0008785716132513821 0.0008858139353509302 0.003936377673654822 0.003936377673654822 0.003936377673654822 0.00393637820373199 0.0039363874931615 0.003951937852746472 0.004175007830674493 0.09660549660682692 0.3110674701288051 0.06865553558862213 0.285770934528487 0.1793139543687351 0.004586423395100314 0.004355863806986243 0.004293332759560549 0.005375793280394578 0.004052660110097835 0.003942325427995077 0.004171365597110212 0.0006905594550090555 0.0006905594550090555 0.0006905594550090555 0.1866264899534605 0.8016296327221478 0.0006927420288572919 0.0006927420662533338 0.0006905595525104708 0.0006905595241500948 0.000690559593124303 0.0006905597219642851 0.0006905596614333495 0.0006905596068326724 0.0006905595028079427 0.0006905595832070364 0.0006905596161603374 0.0006905594848649098 0.0006905595035137709 0.0006905595136847362 0.003437647238874703 0.003437647238874703 0.003437647238874703 0.003437647582515611 0.003447144436880724 0.003454454590775059 0.296844498891893 0.003857562195710886 0.004616893981381687 0.2460243230627717 0.06951603842669256 0.00383421615298581 0.0043868922185144 0.00858911830091535 0.3277717961368425 0.003548819390755802 0.003438113863376376 0.003438578243972726 0.003480960807391857 0.0006172262250637413 0.0006172262250637413 0.0006172262250637413 0.0006172262253065995 0.0006172262293915624 0.0006175208513895623 0.0006350745831706007 0.08707501243446804 0.3502638748358556 0.03751414770657972 0.3032853442261709 0.2130286683430088 0.0006383593090744621 0.0006254386913314889 0.0006235842093371267 0.0007470147051815714 0.0006199649956289468 0.0006172409748477207 0.0006226230040661791 0.002672056997377023 0.002672056997377023 0.002672056997377023 0.002672057082717516 0.002672058479234219 0.002672773062973849 0.002678492383309843 0.01565499322676484 0.3969518622948658 0.1599893035764318 0.2162597086476969 0.1709620931375364 0.004249960071769052 0.003245148382541951 0.002797258373121728 0.003066332840910244 0.002703513716368559 0.002673472976285464 0.002734800755340808 0.05263157894697124 0.05263157894697124 0.05263157894697124 0.05263157894697368 0.05263157894701358 0.05263157894707923 0.05263157894731754 0.0526315789474595 0.05263157894731829 0.05263157894766454 0.05263157894831164 0.05263157894800696 0.05263157894773355 0.05263157894721124 0.05263157894761481 0.05263157894777996 0.05263157894712114 0.05263157894721478 0.05263157894726585 0.0526315789472685 0.0526315789472685 0.0526315789472685 0.05263157894726912 0.05263157894727916 0.05263157894729567 0.05263157894735564 0.05263157894739137 0.05263157894735582 0.05263157894744296 0.05263157894760578 0.05263157894752912 0.05263157894746032 0.05263157894732889 0.05263157894743044 0.052631578947472 0.05263157894730622 0.05263157894732978 0.05263157894734263 0.005941924834175881 0.005941924834175881 0.005941924834175881 0.005941926480004329 0.005941953402457257 0.005943340879116282 0.005951318327453275 0.006339976098744166 0.006338027193777901 0.006484197309673274 0.2300960337790291 0.2258597019100531 0.0063134722823289 0.006704120154664372 0.1153552879770842 0.008313288552072893 0.117172361800401 0.005951266025052998 0.2234679533255592 0.04670155819184515 0.04670155819184515 0.04670155819184515 0.0467122982641588 0.04690333658463697 0.04741613306645671 0.04969482851021544 0.05232391363064123 0.05115318955286047 0.05542636001884069 0.06957106560143814 0.06270488832243551 0.06007311983646777 0.04984167990217625 0.05662784762232691 0.06079163629687202 0.04865121827916682 0.05107661615452252 0.05092719378124829 0.04534155335306657 0.04534155335306657 0.04534155335306657 0.04538325802140199 0.04603152673939483 0.04704309861587051 0.05109005763325883 0.05389373952457899 0.05137139053437591 0.05773583176400961 0.0707761726725932 0.06477049605380192 0.05981672229477072 0.04946656351863521 0.05747801875726338 0.06073362479095412 0.04792187191854871 0.04980689333402009 0.05065607376732219 0.0505461918296567 0.0505461918296567 0.0505461918296567 0.0505540955699003 0.05068851445087327 0.05095933772368295 0.05201183929489721 0.05286197736486302 0.05228139894019726 0.05395087100674578 0.05802507793724534 0.05606322323191732 0.05482907519271378 0.0517527343602464 0.05398321581165299 0.05508047759513111 0.0513010285001331 0.05193482659599852 0.05208373093483162 0.01091569091588763 0.01091569091588763 0.01091569091588763 0.1617162897914758 0.6518834790550132 0.01130686366602942 0.01130857129036762 0.01091917863703368 0.01091812321341643 0.0109205480200051 0.01092506160335935 0.01092297480891015 0.0109210202281343 0.01091736850538949 0.01092019668567034 0.01092136912117174 0.01091673877232321 0.01091739344687396 0.01091775040716307 0.04543806180684686 0.04543806180684686 0.04543806180684686 0.0454484360137869 0.04563464731927376 0.04618885296285935 0.04872912443054189 0.05204759330331985 0.05134643408277133 0.05918108096002019 0.07235508413102423 0.06490609144677717 0.0613257528668173 0.04955759236947382 0.05814704799178216 0.06097324919036728 0.04762942360758872 0.04987453033361313 0.05034087356944229 0.007251483351617829 0.007251483351617829 0.007251483351617829 0.007251485191317862 0.007251515839992373 0.007252686930961135 0.007380333575981534 0.00729633635333301 0.007360840285033422 0.3082110701218508 0.01132127705193898 0.2140266872529346 0.2167805313463823 0.01214654428194803 0.1425092522439437 0.007481534935554091 0.007257602029238456 0.007343671583864639 0.007374180920871613 0.05070060129093967 0.05070060129093967 0.05070060129093967 0.05070887915958139 0.05084961030524883 0.05112252218137329 0.05215790383625706 0.05292703982526294 0.05233425600609588 0.05397023625414507 0.05748065006622847 0.05580603093029333 0.05455990375473785 0.05183131402848314 0.05389685401208173 0.05478314030641713 0.05140907922723199 0.05192675798151131 0.05213401825223148 0.005750925977812586 0.005750925977812586 0.005750925977812586 0.005750926703036926 0.005750938549761078 0.005750993939628203 0.005753897391833465 0.005911533670398996 0.005815053823448252 0.00582745394814288 0.2292075669600628 0.01396101822682267 0.3357952482090636 0.005813039959346736 0.00598082017329287 0.1200636162344595 0.005756943446129833 0.2198451641847071 0.005763006646427486 0.05027391583495214 0.05027391583495214 0.05027391583495214 0.05028397975124047 0.05045702250268885 0.05079748907320288 0.05208393863723507 0.05302522951033802 0.05227070550823275 0.05431775673268838 0.05850281786292505 0.05652230419339749 0.05495113391736607 0.05165119828092982 0.05419110694618377 0.05522207936614158 0.05113715297714869 0.051741068230455 0.05202326900496969 0.03464094532086962 0.03464094532086962 0.03464094532086962 0.09871570103938986 0.3022833563851846 0.0373833782350747 0.03754564811370766 0.03496181772907281 0.03485977827725088 0.03507795959581237 0.03548317273729082 0.03530005408581998 0.03511991553060648 0.03479135372816647 0.03504655151406615 0.03515389815319458 0.03473490956490909 0.03479383731865981 0.03482583202918496 0.04981399594842593 0.04981399594842593 0.04981399594842593 0.04982447166290711 0.05000626267501913 0.05038440509714997 0.05184328670839321 0.05300144541717362 0.05216342818358878 0.05461032126362347 0.05979158329153655 0.0573184460860637 0.05550414004604783 0.05143884692124663 0.05454254523842117 0.05579899848867647 0.0508328787221461 0.05159234314982743 0.0519046092029012 0.0526315789473507 0.0526315789473507 0.0526315789473507 0.05263157894735081 0.05263157894735259 0.05263157894735553 0.05263157894736616 0.05263157894737249 0.05263157894736619 0.05263157894738164 0.05263157894741052 0.05263157894739692 0.05263157894738472 0.05263157894736142 0.05263157894737942 0.05263157894738679 0.05263157894735739 0.05263157894736157 0.05263157894736385 0.05263157894736396 0.05263157894736396 0.05263157894736396 0.05263157894736398 0.05263157894736444 0.05263157894736517 0.05263157894736784 0.05263157894736944 0.05263157894736786 0.05263157894737174 0.05263157894737901 0.05263157894737559 0.05263157894737252 0.05263157894736665 0.05263157894737119 0.05263157894737304 0.05263157894736564 0.05263157894736669 0.05263157894736727</probabilities>
		</cpt>
	</nodes>
	<dynamic numslices="4">
	</dynamic>
	<extensions>
		<genie version="1.0" app="SMILE_ACADEMIC 1.5.0@a121f1f76773" name="AKI_Prediction" faultnameformat="nodestate">
			<plate leftwidth="119" rightwidth="158">170 218 639 855</plate>
			<node id="Age">
				<name>Age</name>
				<interior color="e5f6f7" />
				<outline color="000080" />
				<font color="000000" name="MS Sans Serif" size="8" />
				<position>348 103 450 161</position>
			</node>
			<node id="AKI48H">
				<name>AKI in next 48 hours</name>
				<interior color="e5f6f7" />
				<outline color="000080" />
				<font color="000000" name="MS Sans Serif" size="8" />
				<position>503 88 608 139</position>
			</node>
			<node id="Gender">
				<name>Gender</name>
				<interior color="e5f6f7" />
				<outline color="000080" />
				<font color="000000" name="MS Sans Serif" size="8" />
				<position>192 70 294 128</position>
			</node>
			<node id="Scr_level">
				<name>Scr levels</name>
				<interior color="e5f6f7" />
				<outline color="000080" />
				<font color="000000" name="MS Sans Serif" size="8" />
				<position>342 526 431 569</position>
			</node>
			<textbox>
				<caption>Stage 1\n</caption>
				<font color="000000" name="MS Sans Serif" size="10" bold="true" />
				<position>275 29 348 53</position>
			</textbox>
		</genie>
	</extensions>
</smile>
