<?xml version="1.0" encoding="ISO-8859-1"?>
<!-- This file was created by ACADEMIC version of SMILE -->
<smile version="1.0" id="Network1" numsamples="10000" discsamples="10000">
	<nodes>
		<cpt id="Age">
			<state id="Y16_20" />
			<state id="Y21_30" />
			<state id="Y31_40" />
			<state id="Y41_50" />
			<state id="Y51_60" />
			<state id="Y60_90" />
			<probabilities>0.1 0.2 0.2 0.2 0.2 0.1</probabilities>
		</cpt>
		<cpt id="Medication">
			<state id="Present" />
			<state id="Absent" />
			<probabilities>0.5 0.5</probabilities>
		</cpt>
		<cpt id="AKI" target="true">
			<state id="Present" />
			<state id="Absent" />
			<probabilities>0.6 0.4</probabilities>
		</cpt>
		<cpt id="Gender">
			<state id="M" />
			<state id="F" />
			<probabilities>0.5 0.5</probabilities>
		</cpt>
		<cpt id="Injury" dynamic="plate">
			<state id="None" />
			<state id="Mild" />
			<state id="Severe" />
			<parents>Medication AKI</parents>
			<probabilities>0.34 0.34 0.32 0.33 0.33 0.34 0.5 0.5 0 0.5 0.5 0</probabilities>
		</cpt>
		<cpt id="Scr_level" dynamic="plate">
			<state id="V0_10" />
			<state id="V10_20" />
			<state id="V20_30" />
			<state id="V30_40" />
			<state id="V40_50" />
			<state id="V50_60" />
			<state id="V60_70" />
			<state id="V70_80" />
			<state id="V80_90" />
			<state id="V90_100" />
			<state id="V100_110" />
			<state id="V110_120" />
			<state id="V120_130" />
			<state id="V130_140" />
			<state id="V140_150" />
			<state id="V150_160" />
			<state id="V160_170" />
			<state id="V170_180" />
			<state id="V180_400" />
			<parents>Gender Age Injury</parents>
			<probabilities>0.05263157894736844 0.05263157894736844 0.05263157894736844 0.05263157894736844 0.05263157894736844 0.05263157894736844 0.05263157894736844 0.05263157894736844 0.05263157894736844 0.05263157894736844 0.05263157894736844 0.05263157894736844 0.05263157894736844 0.05263157894736844 0.05263157894736844 0.05263157894736844 0.05263157894736844 0.05263157894736844 0.05263157894736844 0.05263157894736844 0.05263157894736844 0.05263157894736844 0.05263157894736844 0.05263157894736844 0.05263157894736844 0.05263157894736844 0.05263157894736844 0.05263157894736844 0.05263157894736844 0.05263157894736844 0.05263157894736844 0.05263157894736844 0.05263157894736844 0.05263157894736844 0.05263157894736844 0.05263157894736844 0.05263157894736844 0.05263157894736844 0.05263157894736844 0.05263157894736844 0.05263157894736844 0.05263157894736844 0.05263157894736844 0.05263157894736844 0.05263157894736844 0.05263157894736844 0.05263157894736844 0.05263157894736844 0.05263157894736844 0.05263157894736844 0.05263157894736844 0.05263157894736844 0.05263157894736844 0.05263157894736844 0.05263157894736844 0.05263157894736844 0.05263157894736844 0.05263157894736844 0.05263157894736844 0.05263157894736844 0.05263157894736844 0.05263157894736844 0.05263157894736844 0.05263157894736844 0.05263157894736844 0.05263157894736844 0.05263157894736844 0.05263157894736844 0.05263157894736844 0.05263157894736844 0.05263157894736844 0.05263157894736844 0.05263157894736844 0.05263157894736844 0.05263157894736844 0.05263157894736844 0.05263157894736844 0.05263157894736844 0.05263157894736844 0.05263157894736844 0.05263157894736844 0.05263157894736844 0.05263157894736844 0.05263157894736844 0.05263157894736844 0.05263157894736844 0.05263157894736844 0.05263157894736844 0.05263157894736844 0.05263157894736844 0.05263157894736844 0.05263157894736844 0.05263157894736844 0.05263157894736844 0.05263157894736844 0.05263157894736844 0.05263157894736844 0.05263157894736844 0.05263157894736844 0.05263157894736844 0.05263157894736844 0.05263157894736844 0.05263157894736844 0.05263157894736844 0.05263157894736844 0.05263157894736844 0.05263157894736844 0.05263157894736844 0.05263157894736844 0.05263157894736844 0.05263157894736844 0.05263157894736844 0.05263157894736844 0.05263157894736844 0.05263157894736844 0.05263157894736844 0.05263157894736844 0.05263157894736844 0.05263157894736844 0.05263157894736844 0.05263157894736844 0.05263157894736844 0.05263157894736844 0.05263157894736844 0.05263157894736844 0.05263157894736844 0.05263157894736844 0.05263157894736844 0.05263157894736844 0.05263157894736844 0.05263157894736844 0.05263157894736844 0.05263157894736844 0.05263157894736844 0.05263157894736844 0.05263157894736844 0.05263157894736844 0.05263157894736844 0.05263157894736844 0.05263157894736844 0.05263157894736844 0.05263157894736844 0.05263157894736844 0.05263157894736844 0.05263157894736844 0.05263157894736844 0.05263157894736844 0.05263157894736844 0.05263157894736844 0.05263157894736844 0.05263157894736844 0.05263157894736844 0.05263157894736844 0.05263157894736844 0.05263157894736844 0.05263157894736844 0.05263157894736844 0.05263157894736844 0.05263157894736844 0.05263157894736844 0.05263157894736844 0.05263157894736844 0.05263157894736844 0.05263157894736844 0.05263157894736844 0.05263157894736844 0.05263157894736844 0.05263157894736844 0.05263157894736844 0.05263157894736844 0.05263157894736844 0.05263157894736844 0.05263157894736844 0.05263157894736844 0.05263157894736844 0.05263157894736844 0.05263157894736844 0.05263157894736844 0.05263157894736844 0.05263157894736844 0.05263157894736844 0.05263157894736844 0.05263157894736844 0.05263157894736844 0.05263157894736844 0.05263157894736844 0.05263157894736844 0.05263157894736844 0.05263157894736844 0.05263157894736844 0.05263157894736844 0.05263157894736844 0.05263157894736844 0.05263157894736844 0.05263157894736844 0.05263157894736844 0.05263157894736844 0.05263157894736844 0.05263157894736844 0.05263157894736844 0.05263157894736844 0.05263157894736844 0.05263157894736844 0.05263157894736844 0.05263157894736844 0.05263157894736844 0.05263157894736844 0.05263157894736844 0.05263157894736844 0.05263157894736844 0.05263157894736844 0.05263157894736844 0.05263157894736844 0.05263157894736844 0.05263157894736844 0.05263157894736844 0.05263157894736844 0.05263157894736844 0.05263157894736844 0.05263157894736844 0.05263157894736844 0.05263157894736844 0.05263157894736844 0.05263157894736844 0.05263157894736844 0.05263157894736844 0.05263157894736844 0.05263157894736844 0.05263157894736844 0.05263157894736844 0.05263157894736844 0.05263157894736844 0.05263157894736844 0.05263157894736844 0.05263157894736844 0.05263157894736844 0.05263157894736844 0.05263157894736844 0.05263157894736844 0.05263157894736844 0.05263157894736844 0.05263157894736844 0.05263157894736844 0.05263157894736844 0.05263157894736844 0.05263157894736844 0.05263157894736844 0.05263157894736844 0.05263157894736844 0.05263157894736844 0.05263157894736844 0.05263157894736844 0.05263157894736844 0.05263157894736844 0.05263157894736844 0.05263157894736844 0.05263157894736844 0.05263157894736844 0.05263157894736844 0.05263157894736844 0.05263157894736844 0.05263157894736844 0.05263157894736844 0.05263157894736844 0.05263157894736844 0.05263157894736844 0.05263157894736844 0.05263157894736844 0.05263157894736844 0.05263157894736844 0.05263157894736844 0.05263157894736844 0.05263157894736844 0.05263157894736844 0.05263157894736844 0.05263157894736844 0.05263157894736844 0.05263157894736844 0.05263157894736844 0.05263157894736844 0.05263157894736844 0.05263157894736844 0.05263157894736844 0.05263157894736844 0.05263157894736844 0.05263157894736844 0.05263157894736844 0.05263157894736844 0.05263157894736844 0.05263157894736844 0.05263157894736844 0.05263157894736844 0.05263157894736844 0.05263157894736844 0.05263157894736844 0.05263157894736844 0.05263157894736844 0.05263157894736844 0.05263157894736844 0.05263157894736844 0.05263157894736844 0.05263157894736844 0.05263157894736844 0.05263157894736844 0.05263157894736844 0.05263157894736844 0.05263157894736844 0.05263157894736844 0.05263157894736844 0.05263157894736844 0.05263157894736844 0.05263157894736844 0.05263157894736844 0.05263157894736844 0.05263157894736844 0.05263157894736844 0.05263157894736844 0.05263157894736844 0.05263157894736844 0.05263157894736844 0.05263157894736844 0.05263157894736844 0.05263157894736844 0.05263157894736844 0.05263157894736844 0.05263157894736844 0.05263157894736844 0.05263157894736844 0.05263157894736844 0.05263157894736844 0.05263157894736844 0.05263157894736844 0.05263157894736844 0.05263157894736844 0.05263157894736844 0.05263157894736844 0.05263157894736844 0.05263157894736844 0.05263157894736844 0.05263157894736844 0.05263157894736844 0.05263157894736844 0.05263157894736844 0.05263157894736844 0.05263157894736844 0.05263157894736844 0.05263157894736844 0.05263157894736844 0.05263157894736844 0.05263157894736844 0.05263157894736844 0.05263157894736844 0.05263157894736844 0.05263157894736844 0.05263157894736844 0.05263157894736844 0.05263157894736844 0.05263157894736844 0.05263157894736844 0.05263157894736844 0.05263157894736844 0.05263157894736844 0.05263157894736844 0.05263157894736844 0.05263157894736844 0.05263157894736844 0.05263157894736844 0.05263157894736844 0.05263157894736844 0.05263157894736844 0.05263157894736844 0.05263157894736844 0.05263157894736844 0.05263157894736844 0.05263157894736844 0.05263157894736844 0.05263157894736844 0.05263157894736844 0.05263157894736844 0.05263157894736844 0.05263157894736844 0.05263157894736844 0.05263157894736844 0.05263157894736844 0.05263157894736844 0.05263157894736844 0.05263157894736844 0.05263157894736844 0.05263157894736844 0.05263157894736844 0.05263157894736844 0.05263157894736844 0.05263157894736844 0.05263157894736844 0.05263157894736844 0.05263157894736844 0.05263157894736844 0.05263157894736844 0.05263157894736844 0.05263157894736844 0.05263157894736844 0.05263157894736844 0.05263157894736844 0.05263157894736844 0.05263157894736844 0.05263157894736844 0.05263157894736844 0.05263157894736844 0.05263157894736844 0.05263157894736844 0.05263157894736844 0.05263157894736844 0.05263157894736844 0.05263157894736844 0.05263157894736844 0.05263157894736844 0.05263157894736844 0.05263157894736844 0.05263157894736844 0.05263157894736844 0.05263157894736844 0.05263157894736844 0.05263157894736844 0.05263157894736844 0.05263157894736844 0.05263157894736844 0.05263157894736844 0.05263157894736844 0.05263157894736844 0.05263157894736844 0.05263157894736844 0.05263157894736844 0.05263157894736844 0.05263157894736844 0.05263157894736844 0.05263157894736844 0.05263157894736844 0.05263157894736844 0.05263157894736844 0.05263157894736844 0.05263157894736844 0.05263157894736844 0.05263157894736844 0.05263157894736844 0.05263157894736844 0.05263157894736844 0.05263157894736844 0.05263157894736844 0.05263157894736844 0.05263157894736844 0.05263157894736844 0.05263157894736844 0.05263157894736844 0.05263157894736844 0.05263157894736844 0.05263157894736844 0.05263157894736844 0.05263157894736844 0.05263157894736844 0.05263157894736844 0.05263157894736844 0.05263157894736844 0.05263157894736844 0.05263157894736844 0.05263157894736844 0.05263157894736844 0.05263157894736844 0.05263157894736844 0.05263157894736844 0.05263157894736844 0.05263157894736844 0.05263157894736844 0.05263157894736844 0.05263157894736844 0.05263157894736844 0.05263157894736844 0.05263157894736844 0.05263157894736844 0.05263157894736844 0.05263157894736844 0.05263157894736844 0.05263157894736844 0.05263157894736844 0.05263157894736844 0.05263157894736844 0.05263157894736844 0.05263157894736844 0.05263157894736844 0.05263157894736844 0.05263157894736844 0.05263157894736844 0.05263157894736844 0.05263157894736844 0.05263157894736844 0.05263157894736844 0.05263157894736844 0.05263157894736844 0.05263157894736844 0.05263157894736844 0.05263157894736844 0.05263157894736844 0.05263157894736844 0.05263157894736844 0.05263157894736844 0.05263157894736844 0.05263157894736844 0.05263157894736844 0.05263157894736844 0.05263157894736844 0.05263157894736844 0.05263157894736844 0.05263157894736844 0.05263157894736844 0.05263157894736844 0.05263157894736844 0.05263157894736844 0.05263157894736844 0.05263157894736844 0.05263157894736844 0.05263157894736844 0.05263157894736844 0.05263157894736844 0.05263157894736844 0.05263157894736844 0.05263157894736844 0.05263157894736844 0.05263157894736844 0.05263157894736844 0.05263157894736844 0.05263157894736844 0.05263157894736844 0.05263157894736844 0.05263157894736844 0.05263157894736844 0.05263157894736844 0.05263157894736844 0.05263157894736844 0.05263157894736844 0.05263157894736844 0.05263157894736844 0.05263157894736844 0.05263157894736844 0.05263157894736844 0.05263157894736844 0.05263157894736844 0.05263157894736844 0.05263157894736844 0.05263157894736844 0.05263157894736844 0.05263157894736844 0.05263157894736844 0.05263157894736844 0.05263157894736844 0.05263157894736844 0.05263157894736844 0.05263157894736844 0.05263157894736844 0.05263157894736844 0.05263157894736844 0.05263157894736844 0.05263157894736844 0.05263157894736844 0.05263157894736844 0.05263157894736844 0.05263157894736844 0.05263157894736844 0.05263157894736844 0.05263157894736844 0.05263157894736844 0.05263157894736844 0.05263157894736844 0.05263157894736844 0.05263157894736844 0.05263157894736844 0.05263157894736844 0.05263157894736844 0.05263157894736844 0.05263157894736844 0.05263157894736844 0.05263157894736844 0.05263157894736844 0.05263157894736844 0.05263157894736844 0.05263157894736844 0.05263157894736844 0.05263157894736844 0.05263157894736844 0.05263157894736844 0.05263157894736844 0.05263157894736844 0.05263157894736844 0.05263157894736844 0.05263157894736844 0.05263157894736844 0.05263157894736844 0.05263157894736844 0.05263157894736844 0.05263157894736844 0.05263157894736844 0.05263157894736844 0.05263157894736844 0.05263157894736844 0.05263157894736844 0.05263157894736844 0.05263157894736844 0.05263157894736844 0.05263157894736844 0.05263157894736844 0.05263157894736844 0.05263157894736844 0.05263157894736844 0.05263157894736844 0.05263157894736844 0.05263157894736844 0.05263157894736844 0.05263157894736844 0.05263157894736844 0.05263157894736844 0.05263157894736844 0.05263157894736844 0.05263157894736844 0.05263157894736844 0.05263157894736844 0.05263157894736844 0.05263157894736844 0.05263157894736844 0.05263157894736844 0.05263157894736844 0.05263157894736844 0.05263157894736844 0.05263157894736844 0.05263157894736844 0.05263157894736844 0.05263157894736844 0.05263157894736844 0.05263157894736844 0.05263157894736844 0.05263157894736844 0.05263157894736844 0.05263157894736844 0.05263157894736844 0.05263157894736844 0.05263157894736844 0.05263157894736844 0.05263157894736844 0.05263157894736844 0.05263157894736844 0.05263157894736844 0.05263157894736844 0.05263157894736844 0.05263157894736844 0.05263157894736844 0.05263157894736844 0.05263157894736844 0.05263157894736844 0.05263157894736844 0.05263157894736844 0.05263157894736844 0.05263157894736844 0.05263157894736844 0.05263157894736844 0.05263157894736844 0.05263157894736844 0.05263157894736844 0.05263157894736844 0.05263157894736844 0.05263157894736844 0.05263157894736844 0.05263157894736844 0.05263157894736844 0.05263157894736844 0.05263157894736844 0.05263157894736844 0.05263157894736844 0.05263157894736844 0.05263157894736844 0.05263157894736844 0.05263157894736844 0.05263157894736844 0.05263157894736844 0.05263157894736844 0.05263157894736844 0.05263157894736844 0.05263157894736844</probabilities>
		</cpt>
	</nodes>
	<dynamic numslices="4">
		<cpt id="Injury" order="1">
			<parents>Injury</parents>
			<probabilities>0.34 0.34 0.32 0.34 0.34 0.32 0.34 0.34 0.32 0.33 0.33 0.34 0.33 0.33 0.34 0.33 0.33 0.34 0.5 0.5 0 0.5 0.5 0 0.5 0.5 0 0.5 0.5 0 0.5 0.5 0 0.5 0.5 0</probabilities>
		</cpt>
		<cpt id="Injury" order="2">
			<parents>Injury</parents>
			<probabilities>0.34 0.34 0.32 0.34 0.34 0.32 0.34 0.34 0.32 0.34 0.34 0.32 0.34 0.34 0.32 0.34 0.34 0.32 0.34 0.34 0.32 0.34 0.34 0.32 0.34 0.34 0.32 0.33 0.33 0.34 0.33 0.33 0.34 0.33 0.33 0.34 0.33 0.33 0.34 0.33 0.33 0.34 0.33 0.33 0.34 0.33 0.33 0.34 0.33 0.33 0.34 0.33 0.33 0.34 0.5 0.5 0 0.5 0.5 0 0.5 0.5 0 0.5 0.5 0 0.5 0.5 0 0.5 0.5 0 0.5 0.5 0 0.5 0.5 0 0.5 0.5 0 0.5 0.5 0 0.5 0.5 0 0.5 0.5 0 0.5 0.5 0 0.5 0.5 0 0.5 0.5 0 0.5 0.5 0 0.5 0.5 0 0.5 0.5 0</probabilities>
		</cpt>
		<cpt id="Injury" order="3">
			<parents>Injury</parents>
			<probabilities>0.34 0.34 0.32 0.34 0.34 0.32 0.34 0.34 0.32 0.34 0.34 0.32 0.34 0.34 0.32 0.34 0.34 0.32 0.34 0.34 0.32 0.34 0.34 0.32 0.34 0.34 0.32 0.34 0.34 0.32 0.34 0.34 0.32 0.34 0.34 0.32 0.34 0.34 0.32 0.34 0.34 0.32 0.34 0.34 0.32 0.34 0.34 0.32 0.34 0.34 0.32 0.34 0.34 0.32 0.34 0.34 0.32 0.34 0.34 0.32 0.34 0.34 0.32 0.34 0.34 0.32 0.34 0.34 0.32 0.34 0.34 0.32 0.34 0.34 0.32 0.34 0.34 0.32 0.34 0.34 0.32 0.33 0.33 0.34 0.33 0.33 0.34 0.33 0.33 0.34 0.33 0.33 0.34 0.33 0.33 0.34 0.33 0.33 0.34 0.33 0.33 0.34 0.33 0.33 0.34 0.33 0.33 0.34 0.33 0.33 0.34 0.33 0.33 0.34 0.33 0.33 0.34 0.33 0.33 0.34 0.33 0.33 0.34 0.33 0.33 0.34 0.33 0.33 0.34 0.33 0.33 0.34 0.33 0.33 0.34 0.33 0.33 0.34 0.33 0.33 0.34 0.33 0.33 0.34 0.33 0.33 0.34 0.33 0.33 0.34 0.33 0.33 0.34 0.33 0.33 0.34 0.33 0.33 0.34 0.33 0.33 0.34 0.5 0.5 0 0.5 0.5 0 0.5 0.5 0 0.5 0.5 0 0.5 0.5 0 0.5 0.5 0 0.5 0.5 0 0.5 0.5 0 0.5 0.5 0 0.5 0.5 0 0.5 0.5 0 0.5 0.5 0 0.5 0.5 0 0.5 0.5 0 0.5 0.5 0 0.5 0.5 0 0.5 0.5 0 0.5 0.5 0 0.5 0.5 0 0.5 0.5 0 0.5 0.5 0 0.5 0.5 0 0.5 0.5 0 0.5 0.5 0 0.5 0.5 0 0.5 0.5 0 0.5 0.5 0 0.5 0.5 0 0.5 0.5 0 0.5 0.5 0 0.5 0.5 0 0.5 0.5 0 0.5 0.5 0 0.5 0.5 0 0.5 0.5 0 0.5 0.5 0 0.5 0.5 0 0.5 0.5 0 0.5 0.5 0 0.5 0.5 0 0.5 0.5 0 0.5 0.5 0 0.5 0.5 0 0.5 0.5 0 0.5 0.5 0 0.5 0.5 0 0.5 0.5 0 0.5 0.5 0 0.5 0.5 0 0.5 0.5 0 0.5 0.5 0 0.5 0.5 0 0.5 0.5 0 0.5 0.5 0</probabilities>
		</cpt>
	</dynamic>
	<extensions>
		<genie version="1.0" app="SMILE_ACADEMIC 1.5.0@a121f1f76773" name="AKI_Prediction" faultnameformat="nodestate">
			<plate leftwidth="119" rightwidth="210">170 218 925 853</plate>
			<node id="Age">
				<name>Age</name>
				<interior color="e5f6f7" />
				<outline color="000080" />
				<font color="000000" name="MS Sans Serif" size="8" />
				<position>353 107 455 165</position>
			</node>
			<node id="Medication">
				<name>Nephrotoxic medication</name>
				<interior color="e5f6f7" />
				<outline color="000080" />
				<font color="000000" name="MS Sans Serif" size="8" />
				<position>519 79 639 134</position>
			</node>
			<node id="AKI">
				<name>AKI in next 48 hours</name>
				<interior color="e5f6f7" />
				<outline color="000080" />
				<font color="000000" name="MS Sans Serif" size="8" />
				<position>712 86 817 137</position>
			</node>
			<node id="Gender">
				<name>Gender</name>
				<interior color="e5f6f7" />
				<outline color="000080" />
				<font color="000000" name="MS Sans Serif" size="8" />
				<position>205 74 307 132</position>
			</node>
			<node id="Injury">
				<name>Kidney injury</name>
				<interior color="e5f6f7" />
				<outline color="000080" />
				<font color="000000" name="MS Sans Serif" size="8" />
				<position>538 278 707 347</position>
			</node>
			<node id="Scr_level">
				<name>Scr levels</name>
				<interior color="e5f6f7" />
				<outline color="000080" />
				<font color="000000" name="MS Sans Serif" size="8" />
				<position>320 538 409 581</position>
			</node>
			<textbox>
				<caption>Stage 1\n</caption>
				<font color="000000" name="MS Sans Serif" size="10" bold="true" />
				<position>275 29 348 53</position>
			</textbox>
		</genie>
	</extensions>
</smile>
